digraph Tree {
node [shape=box, style="filled, rounded", color="black", fontname="helvetica"] ;
edge [fontname="helvetica"] ;
0 [label="clicados_emails <= 21.5\ngini = 0.5\nsamples = 21\nvalue = [15, 15]\nclass = No Crítico", fillcolor="#ffffff"] ;
1 [label="phishing_emails <= 36.0\ngini = 0.28\nsamples = 9\nvalue = [10, 2]\nclass = No Crítico", fillcolor="#ea9a61"] ;
0 -> 1 [labeldistance=2.5, labelangle=45, headlabel="True"] ;
2 [label="gini = 0.41\nsamples = 6\nvalue = [5, 2]\nclass = No Crítico", fillcolor="#efb388"] ;
1 -> 2 ;
3 [label="gini = 0.0\nsamples = 3\nvalue = [5, 0]\nclass = No Crítico", fillcolor="#e58139"] ;
1 -> 3 ;
4 [label="total_emails <= 167.5\ngini = 0.4\nsamples = 12\nvalue = [5, 13]\nclass = Crítico", fillcolor="#85c3ef"] ;
0 -> 4 [labeldistance=2.5, labelangle=-45, headlabel="False"] ;
5 [label="gini = 0.0\nsamples = 1\nvalue = [2, 0]\nclass = No Crítico", fillcolor="#e58139"] ;
4 -> 5 ;
6 [label="gini = 0.3\nsamples = 11\nvalue = [3, 13]\nclass = Crítico", fillcolor="#67b4eb"] ;
4 -> 6 ;
}