digraph Tree {
node [shape=box, style="filled, rounded", color="black", fontname="helvetica"] ;
edge [fontname="helvetica"] ;
0 [label="clicados_emails <= 21.5\ngini = 0.49\nsamples = 19\nvalue = [17, 13]\nclass = No Crítico", fillcolor="#f9e1d0"] ;
1 [label="clicados_emails <= 11.0\ngini = 0.12\nsamples = 10\nvalue = [14, 1]\nclass = No Crítico", fillcolor="#e78a47"] ;
0 -> 1 [labeldistance=2.5, labelangle=45, headlabel="True"] ;
2 [label="gini = 0.0\nsamples = 6\nvalue = [9, 0]\nclass = No Crítico", fillcolor="#e58139"] ;
1 -> 2 ;
3 [label="gini = 0.28\nsamples = 4\nvalue = [5, 1]\nclass = No Crítico", fillcolor="#ea9a61"] ;
1 -> 3 ;
4 [label="clicados_emails <= 104.5\ngini = 0.32\nsamples = 9\nvalue = [3, 12]\nclass = Crítico", fillcolor="#6ab6ec"] ;
0 -> 4 [labeldistance=2.5, labelangle=-45, headlabel="False"] ;
5 [label="gini = 0.44\nsamples = 6\nvalue = [3, 6]\nclass = Crítico", fillcolor="#9ccef2"] ;
4 -> 5 ;
6 [label="gini = 0.0\nsamples = 3\nvalue = [0, 6]\nclass = Crítico", fillcolor="#399de5"] ;
4 -> 6 ;
}