digraph Tree {
node [shape=box, style="filled, rounded", color="black", fontname="helvetica"] ;
edge [fontname="helvetica"] ;
0 [label="phishing_emails <= 21.5\ngini = 0.48\nsamples = 19\nvalue = [12, 18]\nclass = Crítico", fillcolor="#bddef6"] ;
1 [label="gini = 0.0\nsamples = 3\nvalue = [5, 0]\nclass = No Crítico", fillcolor="#e58139"] ;
0 -> 1 [labeldistance=2.5, labelangle=45, headlabel="True"] ;
2 [label="phishing_emails <= 336.5\ngini = 0.4\nsamples = 16\nvalue = [7.0, 18.0]\nclass = Crítico", fillcolor="#86c3ef"] ;
0 -> 2 [labeldistance=2.5, labelangle=-45, headlabel="False"] ;
3 [label="gini = 0.34\nsamples = 15\nvalue = [5, 18]\nclass = Crítico", fillcolor="#70b8ec"] ;
2 -> 3 ;
4 [label="gini = 0.0\nsamples = 1\nvalue = [2, 0]\nclass = No Crítico", fillcolor="#e58139"] ;
2 -> 4 ;
}