digraph Tree {
node [shape=box, style="filled, rounded", color="black", fontname="helvetica"] ;
edge [fontname="helvetica"] ;
0 [label="phishing_emails <= 54.5\ngini = 0.44\nsamples = 22\nvalue = [20, 10]\nclass = No Crítico", fillcolor="#f2c09c"] ;
1 [label="phishing_emails <= 28.0\ngini = 0.14\nsamples = 9\nvalue = [12, 1]\nclass = No Crítico", fillcolor="#e78c49"] ;
0 -> 1 [labeldistance=2.5, labelangle=45, headlabel="True"] ;
2 [label="gini = 0.0\nsamples = 7\nvalue = [9, 0]\nclass = No Crítico", fillcolor="#e58139"] ;
1 -> 2 ;
3 [label="gini = 0.38\nsamples = 2\nvalue = [3, 1]\nclass = No Crítico", fillcolor="#eeab7b"] ;
1 -> 3 ;
4 [label="phishing_emails <= 154.5\ngini = 0.5\nsamples = 13\nvalue = [8, 9]\nclass = Crítico", fillcolor="#e9f4fc"] ;
0 -> 4 [labeldistance=2.5, labelangle=-45, headlabel="False"] ;
5 [label="gini = 0.24\nsamples = 7\nvalue = [1, 6]\nclass = Crítico", fillcolor="#5aade9"] ;
4 -> 5 ;
6 [label="gini = 0.42\nsamples = 6\nvalue = [7, 3]\nclass = No Crítico", fillcolor="#f0b78e"] ;
4 -> 6 ;
}