digraph Tree {
node [shape=box, style="filled, rounded", color="black", fontname="helvetica"] ;
edge [fontname="helvetica"] ;
0 [label="total_emails <= 250.0\ngini = 0.32\nsamples = 19\nvalue = [24, 6]\nclass = No Crítico", fillcolor="#eca06a"] ;
1 [label="phishing_emails <= 68.0\ngini = 0.12\nsamples = 9\nvalue = [14, 1]\nclass = No Crítico", fillcolor="#e78a47"] ;
0 -> 1 [labeldistance=2.5, labelangle=45, headlabel="True"] ;
2 [label="gini = 0.0\nsamples = 5\nvalue = [8, 0]\nclass = No Crítico", fillcolor="#e58139"] ;
1 -> 2 ;
3 [label="gini = 0.24\nsamples = 4\nvalue = [6, 1]\nclass = No Crítico", fillcolor="#e9965a"] ;
1 -> 3 ;
4 [label="total_emails <= 322.0\ngini = 0.44\nsamples = 10\nvalue = [10, 5]\nclass = No Crítico", fillcolor="#f2c09c"] ;
0 -> 4 [labeldistance=2.5, labelangle=-45, headlabel="False"] ;
5 [label="gini = 0.0\nsamples = 3\nvalue = [0, 4]\nclass = Crítico", fillcolor="#399de5"] ;
4 -> 5 ;
6 [label="gini = 0.17\nsamples = 7\nvalue = [10, 1]\nclass = No Crítico", fillcolor="#e88e4d"] ;
4 -> 6 ;
}